<?xml version="1.0"?>
<opencv_storage>
<stage8>
  <maxWeakCount>35</maxWeakCount>
  <stageThreshold>-9.9826949834823608e-01</stageThreshold>
  <weakClassifiers>
    <_>
      <internalNodes>
        0 -1 4249148 8.8918522000312805e-02</internalNodes>
      <leafValues>
        5.6420233100652695e-02 5.9790211915969849e-01</leafValues></_>
    <_>
      <internalNodes>
        0 -1 4771849 -7.7079841867089272e-03</internalNodes>
      <leafValues>
        5.7154119014739990e-01 -8.1265375018119812e-02</leafValues></_>
    <_>
      <internalNodes>
        0 -1 3040314 4.2301323264837265e-02</internalNodes>
      <leafValues>
        -1.5013848245143890e-01 4.2854037880897522e-01</leafValues></_>
    <_>
      <internalNodes>
        0 -1 745947 -7.9890592023730278e-03</internalNodes>
      <leafValues>
        3.9650672674179077e-01 -1.7520712316036224e-01</leafValues></_>
    <_>
      <internalNodes>
        0 -1 5016208 -2.5453609414398670e-03</internalNodes>
      <leafValues>
        5.8476710319519043e-01 -9.2065840959548950e-02</leafValues></_>
    <_>
      <internalNodes>
        0 -1 4767640 -5.0231087952852249e-03</internalNodes>
      <leafValues>
        4.6348327398300171e-01 -1.5471202135086060e-01</leafValues></_>
    <_>
      <internalNodes>
        0 -1 889255 6.3324626535177231e-03</internalNodes>
      <leafValues>
        -1.5736249089241028e-01 3.8665595650672913e-01</leafValues></_>
    <_>
      <internalNodes>
        0 -1 5780415 -6.7496621049940586e-03</internalNodes>
      <leafValues>
        6.6489654779434204e-01 -8.3685442805290222e-02</leafValues></_>
    <_>
      <internalNodes>
        0 -1 5956372 -1.3244654983282089e-02</internalNodes>
      <leafValues>
        6.5594702959060669e-01 -7.8481934964656830e-02</leafValues></_>
    <_>
      <internalNodes>
        0 -1 27653 4.9968430399894714e-01</internalNodes>
      <leafValues>
        -6.1359543353319168e-02 7.6586663722991943e-01</leafValues></_>
    <_>
      <internalNodes>
        0 -1 125059 1.1923557613044977e-03</internalNodes>
      <leafValues>
        1.2282760441303253e-01 -4.7066274285316467e-01</leafValues></_>
    <_>
      <internalNodes>
        0 -1 3669667 -7.1676187217235565e-03</internalNodes>
      <leafValues>
        3.4905931353569031e-01 -1.5513949096202850e-01</leafValues></_>
    <_>
      <internalNodes>
        0 -1 5826418 2.5701027363538742e-02</internalNodes>
      <leafValues>
        -1.4731600880622864e-01 3.7884920835494995e-01</leafValues></_>
    <_>
      <internalNodes>
        0 -1 4191749 -2.2592686116695404e-02</internalNodes>
      <leafValues>
        4.3464964628219604e-01 -1.2058332562446594e-01</leafValues></_>
    <_>
      <internalNodes>
        0 -1 5662756 -7.0908982306718826e-03</internalNodes>
      <leafValues>
        5.4136568307876587e-01 -9.3197844922542572e-02</leafValues></_>
    <_>
      <internalNodes>
        0 -1 4488768 -5.3408015519380569e-03</internalNodes>
      <leafValues>
        4.4021105766296387e-01 -1.1531799286603928e-01</leafValues></_>
    <_>
      <internalNodes>
        0 -1 108735 -1.3007982634007931e-02</internalNodes>
      <leafValues>
        5.1580148935317993e-01 -8.4196247160434723e-02</leafValues></_>
    <_>
      <internalNodes>
        0 -1 7076266 1.9021302461624146e-02</internalNodes>
      <leafValues>
        -1.2401694059371948e-01 4.2656102776527405e-01</leafValues></_>
    <_>
      <internalNodes>
        0 -1 7110448 -1.6412258148193359e-02</internalNodes>
      <leafValues>
        4.6481245756149292e-01 -1.2831366062164307e-01</leafValues></_>
    <_>
      <internalNodes>
        0 -1 403333 -1.5920104458928108e-02</internalNodes>
      <leafValues>
        -6.1795985698699951e-01 9.1491289436817169e-02</leafValues></_>
    <_>
      <internalNodes>
        0 -1 4609343 -4.7516520135104656e-04</internalNodes>
      <leafValues>
        4.4512963294982910e-01 -1.2668994069099426e-01</leafValues></_>
    <_>
      <internalNodes>
        0 -1 5682476 -6.3593019149266183e-05</internalNodes>
      <leafValues>
        -3.8917517662048340e-01 1.5452553331851959e-01</leafValues></_>
    <_>
      <internalNodes>
        0 -1 6334571 -1.1787933181039989e-04</internalNodes>
      <leafValues>
        -3.4575733542442322e-01 1.6248197853565216e-01</leafValues></_>
    <_>
      <internalNodes>
        0 -1 1576915 -1.3031678972765803e-03</internalNodes>
      <leafValues>
        -5.2199298143386841e-01 1.0673005878925323e-01</leafValues></_>
    <_>
      <internalNodes>
        0 -1 5138507 -8.1322491168975830e-03</internalNodes>
      <leafValues>
        4.8260125517845154e-01 -1.1383856832981110e-01</leafValues></_>
    <_>
      <internalNodes>
        0 -1 5856333 1.7185995820909739e-03</internalNodes>
      <leafValues>
        -1.2768295407295227e-01 4.6928945183753967e-01</leafValues></_>
    <_>
      <internalNodes>
        0 -1 3733292 -7.4750073254108429e-03</internalNodes>
      <leafValues>
        2.9430043697357178e-01 -1.8982481956481934e-01</leafValues></_>
    <_>
      <internalNodes>
        0 -1 655449 -2.2706544026732445e-02</internalNodes>
      <leafValues>
        3.8080433011054993e-01 -1.4205460250377655e-01</leafValues></_>
    <_>
      <internalNodes>
        0 -1 2040516 -2.5867461772577371e-06</internalNodes>
      <leafValues>
        2.7479186654090881e-01 -2.1126382052898407e-01</leafValues></_>
    <_>
      <internalNodes>
        0 -1 2902895 -1.8471014918759465e-03</internalNodes>
      <leafValues>
        -5.3370237350463867e-01 1.0301612317562103e-01</leafValues></_>
    <_>
      <internalNodes>
        0 -1 3033157 -1.8270936608314514e-01</internalNodes>
      <leafValues>
        5.1920771598815918e-01 -1.1059764772653580e-01</leafValues></_>
    <_>
      <internalNodes>
        0 -1 6264151 3.7909736856818199e-03</internalNodes>
      <leafValues>
        -1.4062337577342987e-01 3.8191124796867371e-01</leafValues></_>
    <_>
      <internalNodes>
        0 -1 6942170 9.9971471354365349e-03</internalNodes>
      <leafValues>
        -1.2340974062681198e-01 5.1010096073150635e-01</leafValues></_>
    <_>
      <internalNodes>
        0 -1 4475524 -1.8083613365888596e-02</internalNodes>
      <leafValues>
        7.5621193647384644e-01 -6.4076513051986694e-02</leafValues></_>
    <_>
      <internalNodes>
        0 -1 247975 1.5934149269014597e-04</internalNodes>
      <leafValues>
        -7.7923253178596497e-02 6.1817902326583862e-01</leafValues></_></weakClassifiers></stage8>
</opencv_storage>
