<?xml version="1.0"?>
<opencv_storage>
<stage15>
  <maxWeakCount>37</maxWeakCount>
  <stageThreshold>-9.4434034824371338e-01</stageThreshold>
  <weakClassifiers>
    <_>
      <internalNodes>
        0 -1 5551917 6.2055973103269935e-05</internalNodes>
      <leafValues>
        3.5533383488655090e-01 -2.1212121844291687e-01</leafValues></_>
    <_>
      <internalNodes>
        0 -1 5334230 6.8589684087783098e-04</internalNodes>
      <leafValues>
        -8.2227602601051331e-02 5.4068750143051147e-01</leafValues></_>
    <_>
      <internalNodes>
        0 -1 4617455 2.2477474063634872e-02</internalNodes>
      <leafValues>
        -1.0484933853149414e-01 4.9282854795455933e-01</leafValues></_>
    <_>
      <internalNodes>
        0 -1 5650405 4.4752648100256920e-03</internalNodes>
      <leafValues>
        -9.1437406837940216e-02 5.0429594516754150e-01</leafValues></_>
    <_>
      <internalNodes>
        0 -1 3289399 -9.2149496078491211e-02</internalNodes>
      <leafValues>
        7.4936819076538086e-01 -7.0922717452049255e-02</leafValues></_>
    <_>
      <internalNodes>
        0 -1 1327013 2.0593425631523132e-01</internalNodes>
      <leafValues>
        -1.1407589167356491e-01 4.8522597551345825e-01</leafValues></_>
    <_>
      <internalNodes>
        0 -1 1600517 -8.4815537557005882e-03</internalNodes>
      <leafValues>
        3.2723820209503174e-01 -1.5294064581394196e-01</leafValues></_>
    <_>
      <internalNodes>
        0 -1 592035 2.6810139417648315e-02</internalNodes>
      <leafValues>
        -1.3299509882926941e-01 4.1992518305778503e-01</leafValues></_>
    <_>
      <internalNodes>
        0 -1 2329211 1.3998446520417929e-03</internalNodes>
      <leafValues>
        -2.1155175566673279e-01 2.1772193908691406e-01</leafValues></_>
    <_>
      <internalNodes>
        0 -1 4813582 -7.2453408502042294e-03</internalNodes>
      <leafValues>
        4.7645381093025208e-01 -8.2931302487850189e-02</leafValues></_>
    <_>
      <internalNodes>
        0 -1 4598674 6.1780065298080444e-03</internalNodes>
      <leafValues>
        -1.0091730207204819e-01 4.3847861886024475e-01</leafValues></_>
    <_>
      <internalNodes>
        0 -1 5665197 9.1139794676564634e-05</internalNodes>
      <leafValues>
        -1.5689173340797424e-01 2.7820304036140442e-01</leafValues></_>
    <_>
      <internalNodes>
        0 -1 70526 -1.0598637163639069e-04</internalNodes>
      <leafValues>
        6.0406929254531860e-01 -7.2011485695838928e-02</leafValues></_>
    <_>
      <internalNodes>
        0 -1 320940 4.2608832009136677e-03</internalNodes>
      <leafValues>
        8.2844182848930359e-02 -5.9491860866546631e-01</leafValues></_>
    <_>
      <internalNodes>
        0 -1 5765448 4.3719723180402070e-05</internalNodes>
      <leafValues>
        1.1862277239561081e-01 -3.5326743125915527e-01</leafValues></_>
    <_>
      <internalNodes>
        0 -1 6144690 6.3519971445202827e-03</internalNodes>
      <leafValues>
        -9.3491286039352417e-02 4.9245396256446838e-01</leafValues></_>
    <_>
      <internalNodes>
        0 -1 76547 -1.6486735548824072e-03</internalNodes>
      <leafValues>
        -7.4374526739120483e-01 7.0286154747009277e-02</leafValues></_>
    <_>
      <internalNodes>
        0 -1 7742494 -3.1533255241811275e-04</internalNodes>
      <leafValues>
        8.4477359056472778e-01 -6.3477478921413422e-02</leafValues></_>
    <_>
      <internalNodes>
        0 -1 5601839 -7.3827048763632774e-03</internalNodes>
      <leafValues>
        -7.5895506143569946e-01 7.2577089071273804e-02</leafValues></_>
    <_>
      <internalNodes>
        0 -1 7543426 -5.9453537687659264e-03</internalNodes>
      <leafValues>
        -4.6591612696647644e-01 8.9648567140102386e-02</leafValues></_>
    <_>
      <internalNodes>
        0 -1 336715 -6.1101922765374184e-03</internalNodes>
      <leafValues>
        -6.2499964237213135e-01 6.4175076782703400e-02</leafValues></_>
    <_>
      <internalNodes>
        0 -1 7759784 1.2750359019264579e-04</internalNodes>
      <leafValues>
        -6.9438353180885315e-02 6.9213092327117920e-01</leafValues></_>
    <_>
      <internalNodes>
        0 -1 4215840 -5.4035894572734833e-03</internalNodes>
      <leafValues>
        3.5329771041870117e-01 -1.1949051171541214e-01</leafValues></_>
    <_>
      <internalNodes>
        0 -1 7069645 -6.0369512066245079e-03</internalNodes>
      <leafValues>
        -6.8254041671752930e-01 7.1410939097404480e-02</leafValues></_>
    <_>
      <internalNodes>
        0 -1 3679497 -5.8502350002527237e-03</internalNodes>
      <leafValues>
        4.0056148171424866e-01 -1.1996746808290482e-01</leafValues></_>
    <_>
      <internalNodes>
        0 -1 4143420 6.5237474627792835e-03</internalNodes>
      <leafValues>
        -9.8225131630897522e-02 5.2371162176132202e-01</leafValues></_>
    <_>
      <internalNodes>
        0 -1 5363523 -3.6558605643222108e-05</internalNodes>
      <leafValues>
        -2.9706415534019470e-01 1.7123754322528839e-01</leafValues></_>
    <_>
      <internalNodes>
        0 -1 7674391 -1.3439627946354449e-04</internalNodes>
      <leafValues>
        7.4546581506729126e-01 -6.1390493065118790e-02</leafValues></_>
    <_>
      <internalNodes>
        0 -1 6822686 -2.1320492960512638e-03</internalNodes>
      <leafValues>
        -5.9738051891326904e-01 8.5536114871501923e-02</leafValues></_>
    <_>
      <internalNodes>
        0 -1 510405 2.3994068669708213e-06</internalNodes>
      <leafValues>
        -1.8914654850959778e-01 2.4153247475624084e-01</leafValues></_>
    <_>
      <internalNodes>
        0 -1 3443797 -3.1625246629118919e-03</internalNodes>
      <leafValues>
        3.7131699919700623e-01 -1.2201654165983200e-01</leafValues></_>
    <_>
      <internalNodes>
        0 -1 2159556 -2.1931156516075134e-03</internalNodes>
      <leafValues>
        3.1999886035919189e-01 -1.4453579485416412e-01</leafValues></_>
    <_>
      <internalNodes>
        0 -1 7491896 -6.6781155765056610e-03</internalNodes>
      <leafValues>
        6.4615225791931152e-01 -7.6902136206626892e-02</leafValues></_>
    <_>
      <internalNodes>
        0 -1 7212500 2.0370959828142077e-04</internalNodes>
      <leafValues>
        -1.9299969077110291e-01 2.5443056225776672e-01</leafValues></_>
    <_>
      <internalNodes>
        0 -1 7751408 -2.9714993434026837e-04</internalNodes>
      <leafValues>
        -3.7598589062690735e-01 1.2347199767827988e-01</leafValues></_>
    <_>
      <internalNodes>
        0 -1 7700668 -3.6248788237571716e-03</internalNodes>
      <leafValues>
        -6.6173839569091797e-01 7.1660384535789490e-02</leafValues></_>
    <_>
      <internalNodes>
        0 -1 4553542 2.6730196550488472e-03</internalNodes>
      <leafValues>
        -1.5021032094955444e-01 3.5256543755531311e-01</leafValues></_></weakClassifiers></stage15>
</opencv_storage>
